digraph Tree {
node [shape=box, style="filled", color="black"] ;
0 [label="gender_MALE <= 0.5\ngini = 0.5\nsamples = 1151\nvalue = [574, 577]\nclass = 1", fillcolor="#399de501"] ;
1 [label="job_임시직 <= 0.5\ngini = 0.426\nsamples = 536\nvalue = [371, 165]\nclass = 0", fillcolor="#e581398e"] ;
0 -> 1 [labeldistance=2.5, labelangle=45, headlabel="True"] ;
2 [label="job_자영업 <= 0.5\ngini = 0.384\nsamples = 456\nvalue = [338, 118]\nclass = 0", fillcolor="#e58139a6"] ;
1 -> 2 ;
3 [label="age_20대 <= 0.5\ngini = 0.326\nsamples = 342\nvalue = [272, 70]\nclass = 0", fillcolor="#e58139bd"] ;
2 -> 3 ;
4 [label="job_공무원 <= 0.5\ngini = 0.271\nsamples = 278\nvalue = [233, 45]\nclass = 0", fillcolor="#e58139ce"] ;
3 -> 4 ;
5 [label="gini = 0.24\nsamples = 244\nvalue = [210, 34]\nclass = 0", fillcolor="#e58139d6"] ;
4 -> 5 ;
6 [label="gini = 0.438\nsamples = 34\nvalue = [23, 11]\nclass = 0", fillcolor="#e5813985"] ;
4 -> 6 ;
7 [label="prefer_깊이감 <= 0.5\ngini = 0.476\nsamples = 64\nvalue = [39, 25]\nclass = 0", fillcolor="#e581395c"] ;
3 -> 7 ;
8 [label="gini = 0.355\nsamples = 26\nvalue = [20, 6]\nclass = 0", fillcolor="#e58139b3"] ;
7 -> 8 ;
9 [label="gini = 0.5\nsamples = 38\nvalue = [19, 19]\nclass = 0", fillcolor="#e5813900"] ;
7 -> 9 ;
10 [label="area_grade_4급지 <= 0.5\ngini = 0.488\nsamples = 114\nvalue = [66, 48]\nclass = 0", fillcolor="#e5813946"] ;
2 -> 10 ;
11 [label="choice2_H <= 0.5\ngini = 0.498\nsamples = 103\nvalue = [55, 48]\nclass = 0", fillcolor="#e5813920"] ;
10 -> 11 ;
12 [label="gini = 0.5\nsamples = 92\nvalue = [45, 47]\nclass = 1", fillcolor="#399de50b"] ;
11 -> 12 ;
13 [label="gini = 0.165\nsamples = 11\nvalue = [10, 1]\nclass = 0", fillcolor="#e58139e6"] ;
11 -> 13 ;
14 [label="gini = 0.0\nsamples = 11\nvalue = [11, 0]\nclass = 0", fillcolor="#e58139ff"] ;
10 -> 14 ;
15 [label="choice2_D <= 0.5\ngini = 0.485\nsamples = 80\nvalue = [33, 47]\nclass = 1", fillcolor="#399de54c"] ;
1 -> 15 ;
16 [label="province_서울시 <= 0.5\ngini = 0.451\nsamples = 67\nvalue = [23, 44]\nclass = 1", fillcolor="#399de57a"] ;
15 -> 16 ;
17 [label="side_Gorgonzola <= 0.5\ngini = 0.397\nsamples = 55\nvalue = [15, 40]\nclass = 1", fillcolor="#399de59f"] ;
16 -> 17 ;
18 [label="gini = 0.33\nsamples = 48\nvalue = [10, 38]\nclass = 1", fillcolor="#399de5bc"] ;
17 -> 18 ;
19 [label="gini = 0.408\nsamples = 7\nvalue = [5, 2]\nclass = 0", fillcolor="#e5813999"] ;
17 -> 19 ;
20 [label="prefer_당도 <= 0.5\ngini = 0.444\nsamples = 12\nvalue = [8, 4]\nclass = 0", fillcolor="#e581397f"] ;
16 -> 20 ;
21 [label="gini = 0.245\nsamples = 7\nvalue = [6, 1]\nclass = 0", fillcolor="#e58139d4"] ;
20 -> 21 ;
22 [label="gini = 0.48\nsamples = 5\nvalue = [2, 3]\nclass = 1", fillcolor="#399de555"] ;
20 -> 22 ;
23 [label="area_grade_1급지 <= 0.5\ngini = 0.355\nsamples = 13\nvalue = [10, 3]\nclass = 0", fillcolor="#e58139b3"] ;
15 -> 23 ;
24 [label="gini = 0.219\nsamples = 8\nvalue = [7, 1]\nclass = 0", fillcolor="#e58139db"] ;
23 -> 24 ;
25 [label="gini = 0.48\nsamples = 5\nvalue = [3, 2]\nclass = 0", fillcolor="#e5813955"] ;
23 -> 25 ;
26 [label="age_50대 <= 0.5\ngini = 0.442\nsamples = 615\nvalue = [203, 412]\nclass = 1", fillcolor="#399de581"] ;
0 -> 26 [labeldistance=2.5, labelangle=-45, headlabel="False"] ;
27 [label="job_변호사 <= 0.5\ngini = 0.498\nsamples = 305\nvalue = [161, 144]\nclass = 0", fillcolor="#e581391b"] ;
26 -> 27 ;
28 [label="job_기자 <= 0.5\ngini = 0.495\nsamples = 288\nvalue = [159, 129]\nclass = 0", fillcolor="#e5813930"] ;
27 -> 28 ;
29 [label="choice2_C <= 0.5\ngini = 0.488\nsamples = 268\nvalue = [155, 113]\nclass = 0", fillcolor="#e5813945"] ;
28 -> 29 ;
30 [label="gini = 0.494\nsamples = 243\nvalue = [135, 108]\nclass = 0", fillcolor="#e5813933"] ;
29 -> 30 ;
31 [label="gini = 0.32\nsamples = 25\nvalue = [20, 5]\nclass = 0", fillcolor="#e58139bf"] ;
29 -> 31 ;
32 [label="age_30대 <= 0.5\ngini = 0.32\nsamples = 20\nvalue = [4, 16]\nclass = 1", fillcolor="#399de5bf"] ;
28 -> 32 ;
33 [label="gini = 0.153\nsamples = 12\nvalue = [1, 11]\nclass = 1", fillcolor="#399de5e8"] ;
32 -> 33 ;
34 [label="gini = 0.469\nsamples = 8\nvalue = [3, 5]\nclass = 1", fillcolor="#399de566"] ;
32 -> 34 ;
35 [label="side_Ricotta <= 0.5\ngini = 0.208\nsamples = 17\nvalue = [2, 15]\nclass = 1", fillcolor="#399de5dd"] ;
27 -> 35 ;
36 [label="marital_SINGLE <= 0.5\ngini = 0.153\nsamples = 12\nvalue = [1, 11]\nclass = 1", fillcolor="#399de5e8"] ;
35 -> 36 ;
37 [label="gini = 0.278\nsamples = 6\nvalue = [1, 5]\nclass = 1", fillcolor="#399de5cc"] ;
36 -> 37 ;
38 [label="gini = 0.0\nsamples = 6\nvalue = [0, 6]\nclass = 1", fillcolor="#399de5ff"] ;
36 -> 38 ;
39 [label="gini = 0.32\nsamples = 5\nvalue = [1, 4]\nclass = 1", fillcolor="#399de5bf"] ;
35 -> 39 ;
40 [label="job_임시직 <= 0.5\ngini = 0.234\nsamples = 310\nvalue = [42, 268]\nclass = 1", fillcolor="#399de5d7"] ;
26 -> 40 ;
41 [label="job_자영업 <= 0.5\ngini = 0.179\nsamples = 292\nvalue = [29, 263]\nclass = 1", fillcolor="#399de5e3"] ;
40 -> 41 ;
42 [label="job_공무원 <= 0.5\ngini = 0.146\nsamples = 278\nvalue = [22, 256]\nclass = 1", fillcolor="#399de5e9"] ;
41 -> 42 ;
43 [label="gini = 0.117\nsamples = 240\nvalue = [15, 225]\nclass = 1", fillcolor="#399de5ee"] ;
42 -> 43 ;
44 [label="gini = 0.301\nsamples = 38\nvalue = [7, 31]\nclass = 1", fillcolor="#399de5c5"] ;
42 -> 44 ;
45 [label="wineFrequency <= 1.5\ngini = 0.5\nsamples = 14\nvalue = [7, 7]\nclass = 0", fillcolor="#e5813900"] ;
41 -> 45 ;
46 [label="gini = 0.494\nsamples = 9\nvalue = [5, 4]\nclass = 0", fillcolor="#e5813933"] ;
45 -> 46 ;
47 [label="gini = 0.48\nsamples = 5\nvalue = [2, 3]\nclass = 1", fillcolor="#399de555"] ;
45 -> 47 ;
48 [label="marital_MARREID <= 0.5\ngini = 0.401\nsamples = 18\nvalue = [13, 5]\nclass = 0", fillcolor="#e581399d"] ;
40 -> 48 ;
49 [label="gini = 0.5\nsamples = 6\nvalue = [3, 3]\nclass = 0", fillcolor="#e5813900"] ;
48 -> 49 ;
50 [label="prefer_당도 <= 0.5\ngini = 0.278\nsamples = 12\nvalue = [10, 2]\nclass = 0", fillcolor="#e58139cc"] ;
48 -> 50 ;
51 [label="gini = 0.0\nsamples = 6\nvalue = [6, 0]\nclass = 0", fillcolor="#e58139ff"] ;
50 -> 51 ;
52 [label="gini = 0.444\nsamples = 6\nvalue = [4, 2]\nclass = 0", fillcolor="#e581397f"] ;
50 -> 52 ;
}