digraph Tree {
node [shape=box, style="filled", color="black"] ;
0 [label="gender_FEMALE <= 0.5\ngini = 0.5\nsamples = 1150\nvalue = [575, 575]\nclass = 1", fillcolor="#e5813900"] ;
1 [label="age_50대 <= 0.5\ngini = 0.457\nsamples = 641\nvalue = [226, 415]\nclass = 0", fillcolor="#399de574"] ;
0 -> 1 [labeldistance=2.5, labelangle=45, headlabel="True"] ;
2 [label="age_60대 이상 <= 0.5\ngini = 0.491\nsamples = 324\nvalue = [184, 140]\nclass = 1", fillcolor="#e581393d"] ;
1 -> 2 ;
3 [label="job_group_고급 <= 0.5\ngini = 0.485\nsamples = 313\nvalue = [184, 129]\nclass = 1", fillcolor="#e581394c"] ;
2 -> 3 ;
4 [label="gini = 0.46\nsamples = 229\nvalue = [147, 82]\nclass = 1", fillcolor="#e5813971"] ;
3 -> 4 ;
5 [label="gini = 0.493\nsamples = 84\nvalue = [37, 47]\nclass = 0", fillcolor="#399de536"] ;
3 -> 5 ;
6 [label="gini = 0.0\nsamples = 11\nvalue = [0, 11]\nclass = 0", fillcolor="#399de5ff"] ;
2 -> 6 ;
7 [label="job_group_프리 <= 0.5\ngini = 0.23\nsamples = 317\nvalue = [42, 275]\nclass = 0", fillcolor="#399de5d8"] ;
1 -> 7 ;
8 [label="marital_MARREID <= 0.5\ngini = 0.176\nsamples = 297\nvalue = [29, 268]\nclass = 0", fillcolor="#399de5e3"] ;
7 -> 8 ;
9 [label="gini = 0.251\nsamples = 68\nvalue = [10, 58]\nclass = 0", fillcolor="#399de5d3"] ;
8 -> 9 ;
10 [label="gini = 0.152\nsamples = 229\nvalue = [19, 210]\nclass = 0", fillcolor="#399de5e8"] ;
8 -> 10 ;
11 [label="marital_MARREID <= 0.5\ngini = 0.455\nsamples = 20\nvalue = [13, 7]\nclass = 1", fillcolor="#e5813976"] ;
7 -> 11 ;
12 [label="gini = 0.5\nsamples = 8\nvalue = [4, 4]\nclass = 1", fillcolor="#e5813900"] ;
11 -> 12 ;
13 [label="gini = 0.375\nsamples = 12\nvalue = [9, 3]\nclass = 1", fillcolor="#e58139aa"] ;
11 -> 13 ;
14 [label="job_group_프리 <= 0.5\ngini = 0.431\nsamples = 509\nvalue = [349, 160]\nclass = 1", fillcolor="#e581398a"] ;
0 -> 14 [labeldistance=2.5, labelangle=-45, headlabel="False"] ;
15 [label="age_20대 <= 0.5\ngini = 0.321\nsamples = 323\nvalue = [258, 65]\nclass = 1", fillcolor="#e58139bf"] ;
14 -> 15 ;
16 [label="job_group_갓 <= 0.5\ngini = 0.278\nsamples = 264\nvalue = [220, 44]\nclass = 1", fillcolor="#e58139cc"] ;
15 -> 16 ;
17 [label="gini = 0.25\nsamples = 218\nvalue = [186, 32]\nclass = 1", fillcolor="#e58139d3"] ;
16 -> 17 ;
18 [label="gini = 0.386\nsamples = 46\nvalue = [34, 12]\nclass = 1", fillcolor="#e58139a5"] ;
16 -> 18 ;
19 [label="marital_MARREID <= 0.5\ngini = 0.458\nsamples = 59\nvalue = [38, 21]\nclass = 1", fillcolor="#e5813972"] ;
15 -> 19 ;
20 [label="gini = 0.34\nsamples = 23\nvalue = [18, 5]\nclass = 1", fillcolor="#e58139b8"] ;
19 -> 20 ;
21 [label="gini = 0.494\nsamples = 36\nvalue = [20, 16]\nclass = 1", fillcolor="#e5813933"] ;
19 -> 21 ;
22 [label="age_40대 <= 0.5\ngini = 0.5\nsamples = 186\nvalue = [91, 95]\nclass = 0", fillcolor="#399de50b"] ;
14 -> 22 ;
23 [label="marital_MARREID <= 0.5\ngini = 0.499\nsamples = 144\nvalue = [75, 69]\nclass = 1", fillcolor="#e5813914"] ;
22 -> 23 ;
24 [label="gini = 0.499\nsamples = 50\nvalue = [24, 26]\nclass = 0", fillcolor="#399de514"] ;
23 -> 24 ;
25 [label="gini = 0.496\nsamples = 94\nvalue = [51, 43]\nclass = 1", fillcolor="#e5813928"] ;
23 -> 25 ;
26 [label="marital_MARREID <= 0.5\ngini = 0.472\nsamples = 42\nvalue = [16, 26]\nclass = 0", fillcolor="#399de562"] ;
22 -> 26 ;
27 [label="gini = 0.469\nsamples = 16\nvalue = [6, 10]\nclass = 0", fillcolor="#399de566"] ;
26 -> 27 ;
28 [label="gini = 0.473\nsamples = 26\nvalue = [10, 16]\nclass = 0", fillcolor="#399de560"] ;
26 -> 28 ;
}