digraph Tree {
node [shape=box, style="filled", color="black"] ;
0 [label="job_group_고급 <= 0.5\ngini = 0.5\nsamples = 1624\nvalue = [812, 812]\nclass = 1", fillcolor="#e5813900"] ;
1 [label="gender_FEMALE <= 0.5\ngini = 0.464\nsamples = 988\nvalue = [627, 361]\nclass = 1", fillcolor="#e581396c"] ;
0 -> 1 [labeldistance=2.5, labelangle=45, headlabel="True"] ;
2 [label="job_group_프리 <= 0.5\ngini = 0.424\nsamples = 386\nvalue = [268, 118]\nclass = 1", fillcolor="#e581398f"] ;
1 -> 2 ;
3 [label="age_50대 <= 0.5\ngini = 0.306\nsamples = 180\nvalue = [146, 34]\nclass = 1", fillcolor="#e58139c4"] ;
2 -> 3 ;
4 [label="age_30대 <= 0.5\ngini = 0.264\nsamples = 134\nvalue = [113, 21]\nclass = 1", fillcolor="#e58139d0"] ;
3 -> 4 ;
5 [label="job_group_학생 <= 0.5\ngini = 0.282\nsamples = 94\nvalue = [78, 16]\nclass = 1", fillcolor="#e58139cb"] ;
4 -> 5 ;
6 [label="marital_SINGLE <= 0.5\ngini = 0.301\nsamples = 76\nvalue = [62, 14]\nclass = 1", fillcolor="#e58139c5"] ;
5 -> 6 ;
7 [label="gini = 0.295\nsamples = 50\nvalue = [41, 9]\nclass = 1", fillcolor="#e58139c7"] ;
6 -> 7 ;
8 [label="gini = 0.311\nsamples = 26\nvalue = [21, 5]\nclass = 1", fillcolor="#e58139c2"] ;
6 -> 8 ;
9 [label="gini = 0.198\nsamples = 18\nvalue = [16, 2]\nclass = 1", fillcolor="#e58139df"] ;
5 -> 9 ;
10 [label="job_group_갓 <= 0.5\ngini = 0.219\nsamples = 40\nvalue = [35, 5]\nclass = 1", fillcolor="#e58139db"] ;
4 -> 10 ;
11 [label="marital_SINGLE <= 0.5\ngini = 0.185\nsamples = 29\nvalue = [26, 3]\nclass = 1", fillcolor="#e58139e2"] ;
10 -> 11 ;
12 [label="gini = 0.198\nsamples = 18\nvalue = [16, 2]\nclass = 1", fillcolor="#e58139df"] ;
11 -> 12 ;
13 [label="gini = 0.165\nsamples = 11\nvalue = [10, 1]\nclass = 1", fillcolor="#e58139e6"] ;
11 -> 13 ;
14 [label="gini = 0.298\nsamples = 11\nvalue = [9, 2]\nclass = 1", fillcolor="#e58139c6"] ;
10 -> 14 ;
15 [label="job_group_갓 <= 0.5\ngini = 0.405\nsamples = 46\nvalue = [33, 13]\nclass = 1", fillcolor="#e581399b"] ;
3 -> 15 ;
16 [label="gini = 0.36\nsamples = 34\nvalue = [26, 8]\nclass = 1", fillcolor="#e58139b1"] ;
15 -> 16 ;
17 [label="gini = 0.486\nsamples = 12\nvalue = [7, 5]\nclass = 1", fillcolor="#e5813949"] ;
15 -> 17 ;
18 [label="marital_SINGLE <= 0.5\ngini = 0.483\nsamples = 206\nvalue = [122, 84]\nclass = 1", fillcolor="#e581394f"] ;
2 -> 18 ;
19 [label="age_50대 <= 0.5\ngini = 0.456\nsamples = 139\nvalue = [90, 49]\nclass = 1", fillcolor="#e5813974"] ;
18 -> 19 ;
20 [label="age_20대 <= 0.5\ngini = 0.468\nsamples = 107\nvalue = [67, 40]\nclass = 1", fillcolor="#e5813967"] ;
19 -> 20 ;
21 [label="age_30대 <= 0.5\ngini = 0.473\nsamples = 78\nvalue = [48, 30]\nclass = 1", fillcolor="#e5813960"] ;
20 -> 21 ;
22 [label="gini = 0.48\nsamples = 40\nvalue = [24, 16]\nclass = 1", fillcolor="#e5813955"] ;
21 -> 22 ;
23 [label="gini = 0.465\nsamples = 38\nvalue = [24, 14]\nclass = 1", fillcolor="#e581396a"] ;
21 -> 23 ;
24 [label="gini = 0.452\nsamples = 29\nvalue = [19, 10]\nclass = 1", fillcolor="#e5813979"] ;
20 -> 24 ;
25 [label="gini = 0.404\nsamples = 32\nvalue = [23, 9]\nclass = 1", fillcolor="#e581399b"] ;
19 -> 25 ;
26 [label="age_20대 <= 0.5\ngini = 0.499\nsamples = 67\nvalue = [32, 35]\nclass = 0", fillcolor="#399de516"] ;
18 -> 26 ;
27 [label="age_30대 <= 0.5\ngini = 0.5\nsamples = 47\nvalue = [24, 23]\nclass = 1", fillcolor="#e581390b"] ;
26 -> 27 ;
28 [label="age_50대 <= 0.5\ngini = 0.5\nsamples = 35\nvalue = [17, 18]\nclass = 0", fillcolor="#399de50e"] ;
27 -> 28 ;
29 [label="gini = 0.5\nsamples = 16\nvalue = [8, 8]\nclass = 1", fillcolor="#e5813900"] ;
28 -> 29 ;
30 [label="gini = 0.499\nsamples = 19\nvalue = [9, 10]\nclass = 0", fillcolor="#399de519"] ;
28 -> 30 ;
31 [label="gini = 0.486\nsamples = 12\nvalue = [7, 5]\nclass = 1", fillcolor="#e5813949"] ;
27 -> 31 ;
32 [label="gini = 0.48\nsamples = 20\nvalue = [8, 12]\nclass = 0", fillcolor="#399de555"] ;
26 -> 32 ;
33 [label="age_30대 <= 0.5\ngini = 0.481\nsamples = 602\nvalue = [359, 243]\nclass = 1", fillcolor="#e5813952"] ;
1 -> 33 ;
34 [label="job_group_갓 <= 0.5\ngini = 0.466\nsamples = 462\nvalue = [291, 171]\nclass = 1", fillcolor="#e5813969"] ;
33 -> 34 ;
35 [label="job_group_학생 <= 0.5\ngini = 0.472\nsamples = 404\nvalue = [250, 154]\nclass = 1", fillcolor="#e5813962"] ;
34 -> 35 ;
36 [label="marital_SINGLE <= 0.5\ngini = 0.475\nsamples = 365\nvalue = [223, 142]\nclass = 1", fillcolor="#e581395d"] ;
35 -> 36 ;
37 [label="age_40대 <= 0.5\ngini = 0.47\nsamples = 260\nvalue = [162, 98]\nclass = 1", fillcolor="#e5813965"] ;
36 -> 37 ;
38 [label="gini = 0.456\nsamples = 168\nvalue = [109, 59]\nclass = 1", fillcolor="#e5813975"] ;
37 -> 38 ;
39 [label="gini = 0.488\nsamples = 92\nvalue = [53, 39]\nclass = 1", fillcolor="#e5813943"] ;
37 -> 39 ;
40 [label="age_40대 <= 0.5\ngini = 0.487\nsamples = 105\nvalue = [61, 44]\nclass = 1", fillcolor="#e5813947"] ;
36 -> 40 ;
41 [label="gini = 0.494\nsamples = 63\nvalue = [35, 28]\nclass = 1", fillcolor="#e5813933"] ;
40 -> 41 ;
42 [label="gini = 0.472\nsamples = 42\nvalue = [26, 16]\nclass = 1", fillcolor="#e5813962"] ;
40 -> 42 ;
43 [label="marital_SINGLE <= 0.5\ngini = 0.426\nsamples = 39\nvalue = [27, 12]\nclass = 1", fillcolor="#e581398e"] ;
35 -> 43 ;
44 [label="gini = 0.453\nsamples = 26\nvalue = [17, 9]\nclass = 1", fillcolor="#e5813978"] ;
43 -> 44 ;
45 [label="gini = 0.355\nsamples = 13\nvalue = [10, 3]\nclass = 1", fillcolor="#e58139b3"] ;
43 -> 45 ;
46 [label="age_50대 <= 0.5\ngini = 0.414\nsamples = 58\nvalue = [41, 17]\nclass = 1", fillcolor="#e5813995"] ;
34 -> 46 ;
47 [label="marital_SINGLE <= 0.5\ngini = 0.461\nsamples = 36\nvalue = [23, 13]\nclass = 1", fillcolor="#e581396f"] ;
46 -> 47 ;
48 [label="gini = 0.483\nsamples = 22\nvalue = [13, 9]\nclass = 1", fillcolor="#e581394e"] ;
47 -> 48 ;
49 [label="gini = 0.408\nsamples = 14\nvalue = [10, 4]\nclass = 1", fillcolor="#e5813999"] ;
47 -> 49 ;
50 [label="gini = 0.298\nsamples = 22\nvalue = [18, 4]\nclass = 1", fillcolor="#e58139c6"] ;
46 -> 50 ;
51 [label="job_group_프리 <= 0.5\ngini = 0.5\nsamples = 140\nvalue = [68, 72]\nclass = 0", fillcolor="#399de50e"] ;
33 -> 51 ;
52 [label="job_group_갓 <= 0.5\ngini = 0.494\nsamples = 83\nvalue = [37, 46]\nclass = 0", fillcolor="#399de532"] ;
51 -> 52 ;
53 [label="marital_SINGLE <= 0.5\ngini = 0.492\nsamples = 62\nvalue = [27, 35]\nclass = 0", fillcolor="#399de53a"] ;
52 -> 53 ;
54 [label="gini = 0.491\nsamples = 51\nvalue = [22, 29]\nclass = 0", fillcolor="#399de53e"] ;
53 -> 54 ;
55 [label="gini = 0.496\nsamples = 11\nvalue = [5, 6]\nclass = 0", fillcolor="#399de52a"] ;
53 -> 55 ;
56 [label="gini = 0.499\nsamples = 21\nvalue = [10, 11]\nclass = 0", fillcolor="#399de517"] ;
52 -> 56 ;
57 [label="marital_SINGLE <= 0.5\ngini = 0.496\nsamples = 57\nvalue = [31, 26]\nclass = 1", fillcolor="#e5813929"] ;
51 -> 57 ;
58 [label="gini = 0.499\nsamples = 40\nvalue = [21, 19]\nclass = 1", fillcolor="#e5813918"] ;
57 -> 58 ;
59 [label="gini = 0.484\nsamples = 17\nvalue = [10, 7]\nclass = 1", fillcolor="#e581394d"] ;
57 -> 59 ;
60 [label="gender_MALE <= 0.5\ngini = 0.413\nsamples = 636\nvalue = [185, 451]\nclass = 0", fillcolor="#399de596"] ;
0 -> 60 [labeldistance=2.5, labelangle=-45, headlabel="False"] ;
61 [label="age_30대 <= 0.5\ngini = 0.288\nsamples = 517\nvalue = [90, 427]\nclass = 0", fillcolor="#399de5c9"] ;
60 -> 61 ;
62 [label="age_20대 <= 0.5\ngini = 0.18\nsamples = 450\nvalue = [45, 405]\nclass = 0", fillcolor="#399de5e3"] ;
61 -> 62 ;
63 [label="age_60대 이상 <= 0.5\ngini = 0.145\nsamples = 433\nvalue = [34, 399]\nclass = 0", fillcolor="#399de5e9"] ;
62 -> 63 ;
64 [label="age_40대 <= 0.5\ngini = 0.148\nsamples = 423\nvalue = [34, 389]\nclass = 0", fillcolor="#399de5e9"] ;
63 -> 64 ;
65 [label="marital_MARREID <= 0.5\ngini = 0.135\nsamples = 193\nvalue = [14, 179]\nclass = 0", fillcolor="#399de5eb"] ;
64 -> 65 ;
66 [label="gini = 0.126\nsamples = 74\nvalue = [5, 69]\nclass = 0", fillcolor="#399de5ed"] ;
65 -> 66 ;
67 [label="gini = 0.14\nsamples = 119\nvalue = [9, 110]\nclass = 0", fillcolor="#399de5ea"] ;
65 -> 67 ;
68 [label="marital_SINGLE <= 0.5\ngini = 0.159\nsamples = 230\nvalue = [20, 210]\nclass = 0", fillcolor="#399de5e7"] ;
64 -> 68 ;
69 [label="gini = 0.156\nsamples = 152\nvalue = [13, 139]\nclass = 0", fillcolor="#399de5e7"] ;
68 -> 69 ;
70 [label="gini = 0.163\nsamples = 78\nvalue = [7, 71]\nclass = 0", fillcolor="#399de5e6"] ;
68 -> 70 ;
71 [label="gini = 0.0\nsamples = 10\nvalue = [0, 10]\nclass = 0", fillcolor="#399de5ff"] ;
63 -> 71 ;
72 [label="gini = 0.457\nsamples = 17\nvalue = [11, 6]\nclass = 1", fillcolor="#e5813974"] ;
62 -> 72 ;
73 [label="marital_MARREID <= 0.5\ngini = 0.441\nsamples = 67\nvalue = [45, 22]\nclass = 1", fillcolor="#e5813982"] ;
61 -> 73 ;
74 [label="gini = 0.408\nsamples = 21\nvalue = [15, 6]\nclass = 1", fillcolor="#e5813999"] ;
73 -> 74 ;
75 [label="gini = 0.454\nsamples = 46\nvalue = [30, 16]\nclass = 1", fillcolor="#e5813977"] ;
73 -> 75 ;
76 [label="age_40대 <= 0.5\ngini = 0.322\nsamples = 119\nvalue = [95, 24]\nclass = 1", fillcolor="#e58139bf"] ;
60 -> 76 ;
77 [label="age_30대 <= 0.5\ngini = 0.238\nsamples = 87\nvalue = [75, 12]\nclass = 1", fillcolor="#e58139d6"] ;
76 -> 77 ;
78 [label="marital_SINGLE <= 0.5\ngini = 0.33\nsamples = 48\nvalue = [38, 10]\nclass = 1", fillcolor="#e58139bc"] ;
77 -> 78 ;
79 [label="gini = 0.382\nsamples = 35\nvalue = [26, 9]\nclass = 1", fillcolor="#e58139a7"] ;
78 -> 79 ;
80 [label="gini = 0.142\nsamples = 13\nvalue = [12, 1]\nclass = 1", fillcolor="#e58139ea"] ;
78 -> 80 ;
81 [label="marital_MARREID <= 0.5\ngini = 0.097\nsamples = 39\nvalue = [37, 2]\nclass = 1", fillcolor="#e58139f1"] ;
77 -> 81 ;
82 [label="gini = 0.26\nsamples = 13\nvalue = [11, 2]\nclass = 1", fillcolor="#e58139d1"] ;
81 -> 82 ;
83 [label="gini = 0.0\nsamples = 26\nvalue = [26, 0]\nclass = 1", fillcolor="#e58139ff"] ;
81 -> 83 ;
84 [label="marital_MARREID <= 0.5\ngini = 0.469\nsamples = 32\nvalue = [20, 12]\nclass = 1", fillcolor="#e5813966"] ;
76 -> 84 ;
85 [label="gini = 0.497\nsamples = 13\nvalue = [7, 6]\nclass = 1", fillcolor="#e5813924"] ;
84 -> 85 ;
86 [label="gini = 0.432\nsamples = 19\nvalue = [13, 6]\nclass = 1", fillcolor="#e5813989"] ;
84 -> 86 ;
}