digraph Tree {
node [shape=box, style="filled", color="black"] ;
0 [label="gender_FEMALE <= 0.5\ngini = 0.5\nsamples = 2614\nvalue = [1307, 1307]\nclass = 0", fillcolor="#e5813900"] ;
1 [label="job_group_중급 <= 0.5\ngini = 0.453\nsamples = 875\nvalue = [572, 303]\nclass = 0", fillcolor="#e5813978"] ;
0 -> 1 [labeldistance=2.5, labelangle=45, headlabel="True"] ;
2 [label="age_20대 <= 0.5\ngini = 0.477\nsamples = 622\nvalue = [377, 245]\nclass = 0", fillcolor="#e5813959"] ;
1 -> 2 ;
3 [label="job_group_프리 <= 0.5\ngini = 0.452\nsamples = 473\nvalue = [310, 163]\nclass = 0", fillcolor="#e5813979"] ;
2 -> 3 ;
4 [label="age_50대 <= 0.5\ngini = 0.407\nsamples = 253\nvalue = [181, 72]\nclass = 0", fillcolor="#e581399a"] ;
3 -> 4 ;
5 [label="job_group_고급 <= 0.5\ngini = 0.344\nsamples = 172\nvalue = [134, 38]\nclass = 0", fillcolor="#e58139b7"] ;
4 -> 5 ;
6 [label="gini = 0.24\nsamples = 43\nvalue = [37, 6]\nclass = 0", fillcolor="#e58139d6"] ;
5 -> 6 ;
7 [label="gini = 0.373\nsamples = 129\nvalue = [97, 32]\nclass = 0", fillcolor="#e58139ab"] ;
5 -> 7 ;
8 [label="job_group_갓 <= 0.5\ngini = 0.487\nsamples = 81\nvalue = [47, 34]\nclass = 0", fillcolor="#e5813947"] ;
4 -> 8 ;
9 [label="gini = 0.499\nsamples = 56\nvalue = [29, 27]\nclass = 0", fillcolor="#e5813912"] ;
8 -> 9 ;
10 [label="gini = 0.403\nsamples = 25\nvalue = [18, 7]\nclass = 0", fillcolor="#e581399c"] ;
8 -> 10 ;
11 [label="marital_SINGLE <= 0.5\ngini = 0.485\nsamples = 220\nvalue = [129, 91]\nclass = 0", fillcolor="#e581394b"] ;
3 -> 11 ;
12 [label="age_30대 <= 0.5\ngini = 0.495\nsamples = 157\nvalue = [86, 71]\nclass = 0", fillcolor="#e581392c"] ;
11 -> 12 ;
13 [label="gini = 0.498\nsamples = 107\nvalue = [57, 50]\nclass = 0", fillcolor="#e581391f"] ;
12 -> 13 ;
14 [label="gini = 0.487\nsamples = 50\nvalue = [29, 21]\nclass = 0", fillcolor="#e5813946"] ;
12 -> 14 ;
15 [label="age_40대 <= 0.5\ngini = 0.433\nsamples = 63\nvalue = [43, 20]\nclass = 0", fillcolor="#e5813988"] ;
11 -> 15 ;
16 [label="gini = 0.393\nsamples = 41\nvalue = [30, 11]\nclass = 0", fillcolor="#e58139a1"] ;
15 -> 16 ;
17 [label="gini = 0.483\nsamples = 22\nvalue = [13, 9]\nclass = 0", fillcolor="#e581394e"] ;
15 -> 17 ;
18 [label="job_group_프리 <= 0.5\ngini = 0.495\nsamples = 149\nvalue = [67, 82]\nclass = 1", fillcolor="#399de52f"] ;
2 -> 18 ;
19 [label="job_group_갓 <= 0.5\ngini = 0.46\nsamples = 78\nvalue = [28, 50]\nclass = 1", fillcolor="#399de570"] ;
18 -> 19 ;
20 [label="job_group_학생 <= 0.5\ngini = 0.454\nsamples = 69\nvalue = [24, 45]\nclass = 1", fillcolor="#399de577"] ;
19 -> 20 ;
21 [label="gini = 0.432\nsamples = 19\nvalue = [6, 13]\nclass = 1", fillcolor="#399de589"] ;
20 -> 21 ;
22 [label="gini = 0.461\nsamples = 50\nvalue = [18, 32]\nclass = 1", fillcolor="#399de570"] ;
20 -> 22 ;
23 [label="gini = 0.494\nsamples = 9\nvalue = [4, 5]\nclass = 1", fillcolor="#399de533"] ;
19 -> 23 ;
24 [label="marital_MARREID <= 0.5\ngini = 0.495\nsamples = 71\nvalue = [39, 32]\nclass = 0", fillcolor="#e581392e"] ;
18 -> 24 ;
25 [label="gini = 0.391\nsamples = 15\nvalue = [11, 4]\nclass = 0", fillcolor="#e58139a2"] ;
24 -> 25 ;
26 [label="gini = 0.5\nsamples = 56\nvalue = [28, 28]\nclass = 0", fillcolor="#e5813900"] ;
24 -> 26 ;
27 [label="age_50대 <= 0.5\ngini = 0.353\nsamples = 253\nvalue = [195, 58]\nclass = 0", fillcolor="#e58139b3"] ;
1 -> 27 ;
28 [label="age_40대 <= 0.5\ngini = 0.364\nsamples = 192\nvalue = [146, 46]\nclass = 0", fillcolor="#e58139af"] ;
27 -> 28 ;
29 [label="marital_SINGLE <= 0.5\ngini = 0.354\nsamples = 109\nvalue = [84, 25]\nclass = 0", fillcolor="#e58139b3"] ;
28 -> 29 ;
30 [label="age_20대 <= 0.5\ngini = 0.375\nsamples = 72\nvalue = [54, 18]\nclass = 0", fillcolor="#e58139aa"] ;
29 -> 30 ;
31 [label="gini = 0.4\nsamples = 47\nvalue = [34, 13]\nclass = 0", fillcolor="#e581399e"] ;
30 -> 31 ;
32 [label="gini = 0.32\nsamples = 25\nvalue = [20, 5]\nclass = 0", fillcolor="#e58139bf"] ;
30 -> 32 ;
33 [label="age_20대 <= 0.5\ngini = 0.307\nsamples = 37\nvalue = [30, 7]\nclass = 0", fillcolor="#e58139c4"] ;
29 -> 33 ;
34 [label="gini = 0.236\nsamples = 22\nvalue = [19, 3]\nclass = 0", fillcolor="#e58139d7"] ;
33 -> 34 ;
35 [label="gini = 0.391\nsamples = 15\nvalue = [11, 4]\nclass = 0", fillcolor="#e58139a2"] ;
33 -> 35 ;
36 [label="marital_MARREID <= 0.5\ngini = 0.378\nsamples = 83\nvalue = [62, 21]\nclass = 0", fillcolor="#e58139a9"] ;
28 -> 36 ;
37 [label="gini = 0.403\nsamples = 25\nvalue = [18, 7]\nclass = 0", fillcolor="#e581399c"] ;
36 -> 37 ;
38 [label="gini = 0.366\nsamples = 58\nvalue = [44, 14]\nclass = 0", fillcolor="#e58139ae"] ;
36 -> 38 ;
39 [label="marital_MARREID <= 0.5\ngini = 0.316\nsamples = 61\nvalue = [49, 12]\nclass = 0", fillcolor="#e58139c1"] ;
27 -> 39 ;
40 [label="gini = 0.219\nsamples = 16\nvalue = [14, 2]\nclass = 0", fillcolor="#e58139db"] ;
39 -> 40 ;
41 [label="gini = 0.346\nsamples = 45\nvalue = [35, 10]\nclass = 0", fillcolor="#e58139b6"] ;
39 -> 41 ;
42 [label="age_30대 <= 0.5\ngini = 0.488\nsamples = 1739\nvalue = [735, 1004]\nclass = 1", fillcolor="#399de544"] ;
0 -> 42 [labeldistance=2.5, labelangle=-45, headlabel="False"] ;
43 [label="age_20대 <= 0.5\ngini = 0.464\nsamples = 1396\nvalue = [512, 884]\nclass = 1", fillcolor="#399de56b"] ;
42 -> 43 ;
44 [label="job_group_중급 <= 0.5\ngini = 0.417\nsamples = 1132\nvalue = [335, 797]\nclass = 1", fillcolor="#399de594"] ;
43 -> 44 ;
45 [label="job_group_갓 <= 0.5\ngini = 0.489\nsamples = 630\nvalue = [268, 362]\nclass = 1", fillcolor="#399de542"] ;
44 -> 45 ;
46 [label="job_group_고급 <= 0.5\ngini = 0.499\nsamples = 468\nvalue = [246, 222]\nclass = 0", fillcolor="#e5813919"] ;
45 -> 46 ;
47 [label="gini = 0.489\nsamples = 219\nvalue = [126, 93]\nclass = 0", fillcolor="#e5813943"] ;
46 -> 47 ;
48 [label="gini = 0.499\nsamples = 249\nvalue = [120, 129]\nclass = 1", fillcolor="#399de512"] ;
46 -> 48 ;
49 [label="marital_SINGLE <= 0.5\ngini = 0.235\nsamples = 162\nvalue = [22, 140]\nclass = 1", fillcolor="#399de5d7"] ;
45 -> 49 ;
50 [label="gini = 0.222\nsamples = 110\nvalue = [14, 96]\nclass = 1", fillcolor="#399de5da"] ;
49 -> 50 ;
51 [label="gini = 0.26\nsamples = 52\nvalue = [8, 44]\nclass = 1", fillcolor="#399de5d1"] ;
49 -> 51 ;
52 [label="marital_MARREID <= 0.5\ngini = 0.231\nsamples = 502\nvalue = [67, 435]\nclass = 1", fillcolor="#399de5d8"] ;
44 -> 52 ;
53 [label="age_40대 <= 0.5\ngini = 0.286\nsamples = 133\nvalue = [23, 110]\nclass = 1", fillcolor="#399de5ca"] ;
52 -> 53 ;
54 [label="gini = 0.233\nsamples = 67\nvalue = [9, 58]\nclass = 1", fillcolor="#399de5d7"] ;
53 -> 54 ;
55 [label="gini = 0.334\nsamples = 66\nvalue = [14, 52]\nclass = 1", fillcolor="#399de5ba"] ;
53 -> 55 ;
56 [label="age_40대 <= 0.5\ngini = 0.21\nsamples = 369\nvalue = [44, 325]\nclass = 1", fillcolor="#399de5dc"] ;
52 -> 56 ;
57 [label="gini = 0.203\nsamples = 201\nvalue = [23, 178]\nclass = 1", fillcolor="#399de5de"] ;
56 -> 57 ;
58 [label="gini = 0.219\nsamples = 168\nvalue = [21, 147]\nclass = 1", fillcolor="#399de5db"] ;
56 -> 58 ;
59 [label="job_group_프리 <= 0.5\ngini = 0.442\nsamples = 264\nvalue = [177, 87]\nclass = 0", fillcolor="#e5813982"] ;
43 -> 59 ;
60 [label="job_group_갓 <= 0.5\ngini = 0.375\nsamples = 132\nvalue = [99, 33]\nclass = 0", fillcolor="#e58139aa"] ;
59 -> 60 ;
61 [label="marital_SINGLE <= 0.5\ngini = 0.393\nsamples = 119\nvalue = [87, 32]\nclass = 0", fillcolor="#e58139a1"] ;
60 -> 61 ;
62 [label="gini = 0.419\nsamples = 77\nvalue = [54, 23]\nclass = 0", fillcolor="#e5813992"] ;
61 -> 62 ;
63 [label="gini = 0.337\nsamples = 42\nvalue = [33, 9]\nclass = 0", fillcolor="#e58139b9"] ;
61 -> 63 ;
64 [label="gini = 0.142\nsamples = 13\nvalue = [12, 1]\nclass = 0", fillcolor="#e58139ea"] ;
60 -> 64 ;
65 [label="marital_MARREID <= 0.5\ngini = 0.483\nsamples = 132\nvalue = [78, 54]\nclass = 0", fillcolor="#e581394e"] ;
59 -> 65 ;
66 [label="gini = 0.5\nsamples = 49\nvalue = [25, 24]\nclass = 0", fillcolor="#e581390a"] ;
65 -> 66 ;
67 [label="gini = 0.462\nsamples = 83\nvalue = [53, 30]\nclass = 0", fillcolor="#e581396f"] ;
65 -> 67 ;
68 [label="job_group_중급 <= 0.5\ngini = 0.455\nsamples = 343\nvalue = [223, 120]\nclass = 0", fillcolor="#e5813976"] ;
42 -> 68 ;
69 [label="job_group_갓 <= 0.5\ngini = 0.488\nsamples = 260\nvalue = [150, 110]\nclass = 0", fillcolor="#e5813944"] ;
68 -> 69 ;
70 [label="marital_MARREID <= 0.5\ngini = 0.499\nsamples = 223\nvalue = [117, 106]\nclass = 0", fillcolor="#e5813918"] ;
69 -> 70 ;
71 [label="job_group_고급 <= 0.5\ngini = 0.495\nsamples = 58\nvalue = [26, 32]\nclass = 1", fillcolor="#399de530"] ;
70 -> 71 ;
72 [label="gini = 0.5\nsamples = 33\nvalue = [16, 17]\nclass = 1", fillcolor="#399de50f"] ;
71 -> 72 ;
73 [label="gini = 0.48\nsamples = 25\nvalue = [10, 15]\nclass = 1", fillcolor="#399de555"] ;
71 -> 73 ;
74 [label="job_group_프리 <= 0.5\ngini = 0.495\nsamples = 165\nvalue = [91, 74]\nclass = 0", fillcolor="#e5813930"] ;
70 -> 74 ;
75 [label="gini = 0.493\nsamples = 77\nvalue = [43, 34]\nclass = 0", fillcolor="#e5813935"] ;
74 -> 75 ;
76 [label="gini = 0.496\nsamples = 88\nvalue = [48, 40]\nclass = 0", fillcolor="#e581392a"] ;
74 -> 76 ;
77 [label="marital_MARREID <= 0.5\ngini = 0.193\nsamples = 37\nvalue = [33, 4]\nclass = 0", fillcolor="#e58139e0"] ;
69 -> 77 ;
78 [label="gini = 0.18\nsamples = 10\nvalue = [9, 1]\nclass = 0", fillcolor="#e58139e3"] ;
77 -> 78 ;
79 [label="gini = 0.198\nsamples = 27\nvalue = [24, 3]\nclass = 0", fillcolor="#e58139df"] ;
77 -> 79 ;
80 [label="marital_SINGLE <= 0.5\ngini = 0.212\nsamples = 83\nvalue = [73, 10]\nclass = 0", fillcolor="#e58139dc"] ;
68 -> 80 ;
81 [label="gini = 0.201\nsamples = 53\nvalue = [47, 6]\nclass = 0", fillcolor="#e58139de"] ;
80 -> 81 ;
82 [label="gini = 0.231\nsamples = 30\nvalue = [26, 4]\nclass = 0", fillcolor="#e58139d8"] ;
80 -> 82 ;
}