digraph Tree {
node [shape=box, style="filled", color="black"] ;
0 [label="gender_FEMALE <= 0.5\ngini = 0.5\nsamples = 1288\nvalue = [644, 644]\nclass = 0", fillcolor="#e5813900"] ;
1 [label="age_40대 <= 0.5\ngini = 0.459\nsamples = 674\nvalue = [240, 434]\nclass = 1", fillcolor="#399de572"] ;
0 -> 1 [labeldistance=2.5, labelangle=45, headlabel="True"] ;
2 [label="age_30대 <= 0.5\ngini = 0.5\nsamples = 364\nvalue = [181, 183]\nclass = 1", fillcolor="#399de503"] ;
1 -> 2 ;
3 [label="job_group_학생 <= 0.5\ngini = 0.481\nsamples = 186\nvalue = [111, 75]\nclass = 0", fillcolor="#e5813953"] ;
2 -> 3 ;
4 [label="age_20대 <= 0.5\ngini = 0.487\nsamples = 176\nvalue = [102, 74]\nclass = 0", fillcolor="#e5813946"] ;
3 -> 4 ;
5 [label="job_group_중급 <= 0.5\ngini = 0.449\nsamples = 94\nvalue = [62, 32]\nclass = 0", fillcolor="#e581397b"] ;
4 -> 5 ;
6 [label="gini = 0.48\nsamples = 70\nvalue = [42, 28]\nclass = 0", fillcolor="#e5813955"] ;
5 -> 6 ;
7 [label="gini = 0.278\nsamples = 24\nvalue = [20, 4]\nclass = 0", fillcolor="#e58139cc"] ;
5 -> 7 ;
8 [label="job_group_프리 <= 0.5\ngini = 0.5\nsamples = 82\nvalue = [40, 42]\nclass = 1", fillcolor="#399de50c"] ;
4 -> 8 ;
9 [label="gini = 0.444\nsamples = 42\nvalue = [14, 28]\nclass = 1", fillcolor="#399de57f"] ;
8 -> 9 ;
10 [label="gini = 0.455\nsamples = 40\nvalue = [26, 14]\nclass = 0", fillcolor="#e5813976"] ;
8 -> 10 ;
11 [label="gini = 0.18\nsamples = 10\nvalue = [9, 1]\nclass = 0", fillcolor="#e58139e3"] ;
3 -> 11 ;
12 [label="marital_MARREID <= 0.5\ngini = 0.477\nsamples = 178\nvalue = [70, 108]\nclass = 1", fillcolor="#399de55a"] ;
2 -> 12 ;
13 [label="job_group_고급 <= 0.5\ngini = 0.464\nsamples = 41\nvalue = [26, 15]\nclass = 0", fillcolor="#e581396c"] ;
12 -> 13 ;
14 [label="job_group_중급 <= 0.5\ngini = 0.444\nsamples = 27\nvalue = [18, 9]\nclass = 0", fillcolor="#e581397f"] ;
13 -> 14 ;
15 [label="gini = 0.397\nsamples = 11\nvalue = [8, 3]\nclass = 0", fillcolor="#e581399f"] ;
14 -> 15 ;
16 [label="gini = 0.469\nsamples = 16\nvalue = [10, 6]\nclass = 0", fillcolor="#e5813966"] ;
14 -> 16 ;
17 [label="gini = 0.49\nsamples = 14\nvalue = [8, 6]\nclass = 0", fillcolor="#e5813940"] ;
13 -> 17 ;
18 [label="job_group_고급 <= 0.5\ngini = 0.436\nsamples = 137\nvalue = [44, 93]\nclass = 1", fillcolor="#399de586"] ;
12 -> 18 ;
19 [label="job_group_프리 <= 0.5\ngini = 0.39\nsamples = 117\nvalue = [31, 86]\nclass = 1", fillcolor="#399de5a3"] ;
18 -> 19 ;
20 [label="gini = 0.312\nsamples = 93\nvalue = [18, 75]\nclass = 1", fillcolor="#399de5c2"] ;
19 -> 20 ;
21 [label="gini = 0.497\nsamples = 24\nvalue = [13, 11]\nclass = 0", fillcolor="#e5813927"] ;
19 -> 21 ;
22 [label="gini = 0.455\nsamples = 20\nvalue = [13, 7]\nclass = 0", fillcolor="#e5813976"] ;
18 -> 22 ;
23 [label="marital_MARREID <= 0.5\ngini = 0.308\nsamples = 310\nvalue = [59, 251]\nclass = 1", fillcolor="#399de5c3"] ;
1 -> 23 ;
24 [label="job_group_고급 <= 0.5\ngini = 0.5\nsamples = 47\nvalue = [24, 23]\nclass = 0", fillcolor="#e581390b"] ;
23 -> 24 ;
25 [label="job_group_프리 <= 0.5\ngini = 0.495\nsamples = 29\nvalue = [13, 16]\nclass = 1", fillcolor="#399de530"] ;
24 -> 25 ;
26 [label="gini = 0.488\nsamples = 19\nvalue = [8, 11]\nclass = 1", fillcolor="#399de546"] ;
25 -> 26 ;
27 [label="gini = 0.5\nsamples = 10\nvalue = [5, 5]\nclass = 0", fillcolor="#e5813900"] ;
25 -> 27 ;
28 [label="gini = 0.475\nsamples = 18\nvalue = [11, 7]\nclass = 0", fillcolor="#e581395d"] ;
24 -> 28 ;
29 [label="job_group_프리 <= 0.5\ngini = 0.231\nsamples = 263\nvalue = [35, 228]\nclass = 1", fillcolor="#399de5d8"] ;
23 -> 29 ;
30 [label="job_group_갓 <= 0.5\ngini = 0.137\nsamples = 229\nvalue = [17, 212]\nclass = 1", fillcolor="#399de5eb"] ;
29 -> 30 ;
31 [label="job_group_중급 <= 0.5\ngini = 0.114\nsamples = 197\nvalue = [12, 185]\nclass = 1", fillcolor="#399de5ee"] ;
30 -> 31 ;
32 [label="gini = 0.075\nsamples = 102\nvalue = [4, 98]\nclass = 1", fillcolor="#399de5f5"] ;
31 -> 32 ;
33 [label="gini = 0.154\nsamples = 95\nvalue = [8, 87]\nclass = 1", fillcolor="#399de5e8"] ;
31 -> 33 ;
34 [label="gini = 0.264\nsamples = 32\nvalue = [5, 27]\nclass = 1", fillcolor="#399de5d0"] ;
30 -> 34 ;
35 [label="gini = 0.498\nsamples = 34\nvalue = [18, 16]\nclass = 0", fillcolor="#e581391c"] ;
29 -> 35 ;
36 [label="job_group_프리 <= 0.5\ngini = 0.45\nsamples = 614\nvalue = [404, 210]\nclass = 0", fillcolor="#e581397a"] ;
0 -> 36 [labeldistance=2.5, labelangle=-45, headlabel="False"] ;
37 [label="age_40대 <= 0.5\ngini = 0.408\nsamples = 410\nvalue = [293, 117]\nclass = 0", fillcolor="#e5813999"] ;
36 -> 37 ;
38 [label="marital_SINGLE <= 0.5\ngini = 0.359\nsamples = 281\nvalue = [215, 66]\nclass = 0", fillcolor="#e58139b1"] ;
37 -> 38 ;
39 [label="job_group_학생 <= 0.5\ngini = 0.334\nsamples = 198\nvalue = [156, 42]\nclass = 0", fillcolor="#e58139ba"] ;
38 -> 39 ;
40 [label="age_20대 <= 0.5\ngini = 0.348\nsamples = 183\nvalue = [142, 41]\nclass = 0", fillcolor="#e58139b5"] ;
39 -> 40 ;
41 [label="gini = 0.331\nsamples = 148\nvalue = [117, 31]\nclass = 0", fillcolor="#e58139bb"] ;
40 -> 41 ;
42 [label="gini = 0.408\nsamples = 35\nvalue = [25, 10]\nclass = 0", fillcolor="#e5813999"] ;
40 -> 42 ;
43 [label="gini = 0.124\nsamples = 15\nvalue = [14, 1]\nclass = 0", fillcolor="#e58139ed"] ;
39 -> 43 ;
44 [label="job_group_중급 <= 0.5\ngini = 0.411\nsamples = 83\nvalue = [59, 24]\nclass = 0", fillcolor="#e5813997"] ;
38 -> 44 ;
45 [label="age_20대 <= 0.5\ngini = 0.35\nsamples = 53\nvalue = [41, 12]\nclass = 0", fillcolor="#e58139b4"] ;
44 -> 45 ;
46 [label="gini = 0.301\nsamples = 38\nvalue = [31, 7]\nclass = 0", fillcolor="#e58139c5"] ;
45 -> 46 ;
47 [label="gini = 0.444\nsamples = 15\nvalue = [10, 5]\nclass = 0", fillcolor="#e581397f"] ;
45 -> 47 ;
48 [label="age_50대 <= 0.5\ngini = 0.48\nsamples = 30\nvalue = [18, 12]\nclass = 0", fillcolor="#e5813955"] ;
44 -> 48 ;
49 [label="gini = 0.498\nsamples = 17\nvalue = [9, 8]\nclass = 0", fillcolor="#e581391c"] ;
48 -> 49 ;
50 [label="gini = 0.426\nsamples = 13\nvalue = [9, 4]\nclass = 0", fillcolor="#e581398e"] ;
48 -> 50 ;
51 [label="job_group_고급 <= 0.5\ngini = 0.478\nsamples = 129\nvalue = [78, 51]\nclass = 0", fillcolor="#e5813958"] ;
37 -> 51 ;
52 [label="marital_SINGLE <= 0.5\ngini = 0.495\nsamples = 78\nvalue = [43, 35]\nclass = 0", fillcolor="#e581392f"] ;
51 -> 52 ;
53 [label="job_group_갓 <= 0.5\ngini = 0.498\nsamples = 58\nvalue = [31, 27]\nclass = 0", fillcolor="#e5813921"] ;
52 -> 53 ;
54 [label="gini = 0.5\nsamples = 37\nvalue = [19, 18]\nclass = 0", fillcolor="#e581390d"] ;
53 -> 54 ;
55 [label="gini = 0.49\nsamples = 21\nvalue = [12, 9]\nclass = 0", fillcolor="#e5813940"] ;
53 -> 55 ;
56 [label="job_group_갓 <= 0.5\ngini = 0.48\nsamples = 20\nvalue = [12, 8]\nclass = 0", fillcolor="#e5813955"] ;
52 -> 56 ;
57 [label="gini = 0.459\nsamples = 14\nvalue = [9, 5]\nclass = 0", fillcolor="#e5813971"] ;
56 -> 57 ;
58 [label="gini = 0.5\nsamples = 6\nvalue = [3, 3]\nclass = 0", fillcolor="#e5813900"] ;
56 -> 58 ;
59 [label="marital_MARREID <= 0.5\ngini = 0.431\nsamples = 51\nvalue = [35, 16]\nclass = 0", fillcolor="#e581398a"] ;
51 -> 59 ;
60 [label="gini = 0.488\nsamples = 19\nvalue = [11, 8]\nclass = 0", fillcolor="#e5813946"] ;
59 -> 60 ;
61 [label="gini = 0.375\nsamples = 32\nvalue = [24, 8]\nclass = 0", fillcolor="#e58139aa"] ;
59 -> 61 ;
62 [label="age_50대 <= 0.5\ngini = 0.496\nsamples = 204\nvalue = [111, 93]\nclass = 0", fillcolor="#e5813929"] ;
36 -> 62 ;
63 [label="age_30대 <= 0.5\ngini = 0.498\nsamples = 163\nvalue = [86, 77]\nclass = 0", fillcolor="#e581391b"] ;
62 -> 63 ;
64 [label="age_20대 <= 0.5\ngini = 0.497\nsamples = 120\nvalue = [65, 55]\nclass = 0", fillcolor="#e5813927"] ;
63 -> 64 ;
65 [label="marital_MARREID <= 0.5\ngini = 0.495\nsamples = 69\nvalue = [38, 31]\nclass = 0", fillcolor="#e581392f"] ;
64 -> 65 ;
66 [label="gini = 0.488\nsamples = 19\nvalue = [8, 11]\nclass = 1", fillcolor="#399de546"] ;
65 -> 66 ;
67 [label="gini = 0.48\nsamples = 50\nvalue = [30, 20]\nclass = 0", fillcolor="#e5813955"] ;
65 -> 67 ;
68 [label="marital_SINGLE <= 0.5\ngini = 0.498\nsamples = 51\nvalue = [27, 24]\nclass = 0", fillcolor="#e581391c"] ;
64 -> 68 ;
69 [label="gini = 0.496\nsamples = 33\nvalue = [15, 18]\nclass = 1", fillcolor="#399de52a"] ;
68 -> 69 ;
70 [label="gini = 0.444\nsamples = 18\nvalue = [12, 6]\nclass = 0", fillcolor="#e581397f"] ;
68 -> 70 ;
71 [label="marital_MARREID <= 0.5\ngini = 0.5\nsamples = 43\nvalue = [21, 22]\nclass = 1", fillcolor="#399de50c"] ;
63 -> 71 ;
72 [label="gini = 0.444\nsamples = 9\nvalue = [3, 6]\nclass = 1", fillcolor="#399de57f"] ;
71 -> 72 ;
73 [label="gini = 0.498\nsamples = 34\nvalue = [18, 16]\nclass = 0", fillcolor="#e581391c"] ;
71 -> 73 ;
74 [label="marital_MARREID <= 0.5\ngini = 0.476\nsamples = 41\nvalue = [25, 16]\nclass = 0", fillcolor="#e581395c"] ;
62 -> 74 ;
75 [label="gini = 0.391\nsamples = 15\nvalue = [11, 4]\nclass = 0", fillcolor="#e58139a2"] ;
74 -> 75 ;
76 [label="gini = 0.497\nsamples = 26\nvalue = [14, 12]\nclass = 0", fillcolor="#e5813924"] ;
74 -> 76 ;
}