digraph Tree {
node [shape=box, style="filled", color="black"] ;
0 [label="age_20대 <= 0.5\ngini = 0.5\nsamples = 2051\nvalue = [1006, 1045]\nclass = 0", fillcolor="#399de50a"] ;
1 [label="gini = 0.485\nsamples = 1433\nvalue = [842, 591]\nclass = 1", fillcolor="#e581394c"] ;
0 -> 1 [labeldistance=2.5, labelangle=45, headlabel="True"] ;
2 [label="gini = 0.39\nsamples = 618\nvalue = [164, 454]\nclass = 0", fillcolor="#399de5a3"] ;
0 -> 2 [labeldistance=2.5, labelangle=-45, headlabel="False"] ;
}