digraph Tree {
node [shape=box, style="filled", color="black"] ;
0 [label="age_30대 <= 0.5\ngini = 0.865\nsamples = 6991\nvalue = [590, 1017, 825, 1335, 1118, 636, 697, 773]\nclass = D", fillcolor="#39e5ac09"] ;
1 [label="gender_FEMALE <= 0.5\ngini = 0.861\nsamples = 5261\nvalue = [510, 811, 703, 1171, 457, 486, 531, 592]\nclass = D", fillcolor="#39e5ac15"] ;
0 -> 1 [labeldistance=2.5, labelangle=45, headlabel="True"] ;
2 [label="age_50대 <= 0.5\ngini = 0.864\nsamples = 2116\nvalue = [377, 232, 113, 260, 203, 326, 267, 338]\nclass = E", fillcolor="#e5813906"] ;
1 -> 2 ;
3 [label="age_40대 <= 0.5\ngini = 0.858\nsamples = 1407\nvalue = [111, 164, 79, 180, 137, 295, 211, 230]\nclass = F", fillcolor="#5639e50e"] ;
2 -> 3 ;
4 [label="gini = 0.853\nsamples = 567\nvalue = [42, 124, 30, 97, 85, 50, 84, 55]\nclass = C", fillcolor="#c8e5390f"] ;
3 -> 4 ;
5 [label="gini = 0.823\nsamples = 840\nvalue = [69, 40, 49, 83, 52, 245, 127, 175]\nclass = F", fillcolor="#5639e51b"] ;
3 -> 5 ;
6 [label="job_자영업 <= 0.5\ngini = 0.795\nsamples = 709\nvalue = [266, 68, 34, 80, 66, 31, 56, 108]\nclass = E", fillcolor="#e5813943"] ;
2 -> 6 ;
7 [label="gini = 0.762\nsamples = 611\nvalue = [261, 50, 27, 67, 51, 23, 40, 92]\nclass = E", fillcolor="#e5813953"] ;
6 -> 7 ;
8 [label="gini = 0.858\nsamples = 98\nvalue = [5, 18, 7, 13, 15, 8, 16, 16]\nclass = C", fillcolor="#c8e53906"] ;
6 -> 8 ;
9 [label="age_20대 <= 0.5\ngini = 0.823\nsamples = 3145\nvalue = [133, 579, 590, 911, 254, 160, 264, 254]\nclass = D", fillcolor="#39e5ac20"] ;
1 -> 9 ;
10 [label="job_중소기업직원 <= 0.5\ngini = 0.792\nsamples = 2356\nvalue = [85, 258, 532, 828, 174, 115, 182, 182]\nclass = D", fillcolor="#39e5ac29"] ;
9 -> 10 ;
11 [label="gini = 0.804\nsamples = 2110\nvalue = [81, 237, 519, 669, 160, 104, 173, 167]\nclass = D", fillcolor="#39e5ac18"] ;
10 -> 11 ;
12 [label="gini = 0.562\nsamples = 246\nvalue = [4, 21, 13, 159, 14, 11, 9, 15]\nclass = D", fillcolor="#39e5ac9c"] ;
10 -> 12 ;
13 [label="job_자영업 <= 0.5\ngini = 0.782\nsamples = 789\nvalue = [48, 321, 58, 83, 80, 45, 82, 72]\nclass = C", fillcolor="#c8e53956"] ;
9 -> 13 ;
14 [label="gini = 0.695\nsamples = 548\nvalue = [32, 285, 46, 46, 47, 28, 34, 30]\nclass = C", fillcolor="#c8e53979"] ;
13 -> 14 ;
15 [label="gini = 0.853\nsamples = 241\nvalue = [16, 36, 12, 37, 33, 17, 48, 42]\nclass = A", fillcolor="#d739e508"] ;
13 -> 15 ;
16 [label="gender_MALE <= 0.5\ngini = 0.796\nsamples = 1730\nvalue = [80, 206, 122, 164, 661, 150, 166, 181]\nclass = G", fillcolor="#399de54c"] ;
0 -> 16 [labeldistance=2.5, labelangle=-45, headlabel="False"] ;
17 [label="job_임시직 <= 0.5\ngini = 0.748\nsamples = 1033\nvalue = [41, 154, 97, 106, 461, 45, 65, 64]\nclass = G", fillcolor="#399de559"] ;
16 -> 17 ;
18 [label="job_자영업 <= 0.5\ngini = 0.7\nsamples = 878\nvalue = [27, 130, 83, 78, 443, 32, 46, 39]\nclass = G", fillcolor="#399de56b"] ;
17 -> 18 ;
19 [label="gini = 0.634\nsamples = 738\nvalue = [18, 104, 72, 59, 422, 23, 27, 13]\nclass = G", fillcolor="#399de580"] ;
18 -> 19 ;
20 [label="gini = 0.857\nsamples = 140\nvalue = [9, 26, 11, 19, 21, 9, 19, 26]\nclass = C", fillcolor="#c8e53900"] ;
18 -> 20 ;
21 [label="choice2_E <= 0.5\ngini = 0.866\nsamples = 155\nvalue = [14, 24, 14, 28, 18, 13, 19, 25]\nclass = D", fillcolor="#39e5ac06"] ;
17 -> 21 ;
22 [label="gini = 0.866\nsamples = 134\nvalue = [12, 23, 11, 19, 16, 12, 19, 22]\nclass = C", fillcolor="#c8e53902"] ;
21 -> 22 ;
23 [label="gini = 0.753\nsamples = 21\nvalue = [2, 1, 3, 9, 2, 1, 0, 3]\nclass = D", fillcolor="#39e5ac55"] ;
21 -> 23 ;
24 [label="marital_MARREID <= 0.5\ngini = 0.829\nsamples = 697\nvalue = [39, 52, 25, 58, 200, 105, 101, 117]\nclass = G", fillcolor="#399de524"] ;
16 -> 24 ;
25 [label="choice2_G <= 0.5\ngini = 0.79\nsamples = 229\nvalue = [12, 20, 8, 14, 18, 20, 62, 75]\nclass = H", fillcolor="#e5397214"] ;
24 -> 25 ;
26 [label="gini = 0.769\nsamples = 175\nvalue = [12, 12, 7, 13, 13, 11, 37, 70]\nclass = H", fillcolor="#e539723d"] ;
25 -> 26 ;
27 [label="gini = 0.718\nsamples = 54\nvalue = [0, 8, 1, 1, 5, 9, 25, 5]\nclass = A", fillcolor="#d739e55b"] ;
25 -> 27 ;
28 [label="job_임시직 <= 0.5\ngini = 0.783\nsamples = 468\nvalue = [27, 32, 17, 44, 182, 85, 39, 42]\nclass = G", fillcolor="#399de541"] ;
24 -> 28 ;
29 [label="gini = 0.75\nsamples = 396\nvalue = [24, 20, 12, 31, 170, 80, 26, 33]\nclass = G", fillcolor="#399de549"] ;
28 -> 29 ;
30 [label="gini = 0.852\nsamples = 72\nvalue = [3, 12, 5, 13, 12, 5, 13, 9]\nclass = D", fillcolor="#39e5ac00"] ;
28 -> 30 ;
}